{
  "categorical_features": [
    "symbol",
    "direction",
    "daily_pred_direction",
    "daily_frequency_bias",
    "strategy_top_signal",
    "indicator_macd_state",
    "indicator_bb_state",
    "indicator_stoch_state",
    "indicator_adx_state",
    "indicator_osc_state",
    "indicator_vote_bucket"
  ],
  "hash_bins": 32,
  "hidden_size": 24,
  "horizon_bars": 15,
  "metrics": {
    "accuracy": 0.8451785714285714,
    "brier": 0.1308976411819458,
    "log_loss": 0.43109896779060364,
    "positive_rate": 0.8451785714285714
  },
  "model_type": "PURE_PY_MLP",
  "numeric_features": [
    "atr",
    "rsi",
    "ema20_slope_atr",
    "ema50_slope_atr",
    "spread",
    "estimated_cost_atr",
    "event_count",
    "high_event_count",
    "nearest_event_minutes",
    "macro_bias_score",
    "macro_rate_spread",
    "macro_rate_change_spread",
    "macro_cpi_yoy_spread",
    "macro_cpi_mom_spread",
    "macro_unemployment_spread",
    "macro_unemployment_change_spread",
    "macro_growth_spread",
    "macro_real_rate_spread",
    "macro_usd_yield_10y",
    "daily_direction_confidence",
    "daily_pred_body_atr",
    "daily_pred_range_atr",
    "indicator_atr_pct",
    "indicator_range_atr",
    "indicator_body_atr",
    "indicator_upper_wick_atr",
    "indicator_lower_wick_atr",
    "indicator_ema20_distance_atr",
    "indicator_ema50_distance_atr",
    "indicator_ema200_distance_atr",
    "indicator_ema20_50_spread_atr",
    "indicator_ema50_200_spread_atr",
    "indicator_rsi_centered",
    "indicator_return_5_atr",
    "indicator_return_15_atr",
    "indicator_breakout_position_20",
    "strategy_trend_score",
    "strategy_pullback_score",
    "strategy_breakout_score",
    "strategy_reversal_score",
    "strategy_volatility_score",
    "strategy_composite_score",
    "indicator_macd_line_atr",
    "indicator_macd_signal_atr",
    "indicator_macd_hist_atr",
    "indicator_macd_hist_slope_atr",
    "indicator_bb_position",
    "indicator_bb_width_atr",
    "indicator_stoch_k",
    "indicator_stoch_d",
    "indicator_adx",
    "indicator_plus_di",
    "indicator_minus_di",
    "indicator_cci",
    "indicator_williams_r",
    "indicator_vote_score",
    "entry_hour",
    "entry_weekday"
  ],
  "real_trade_feedback": {
    "days": 365,
    "enabled": true,
    "max_rows": 2000,
    "max_weight": 3.0,
    "min_weight": 0.75,
    "negative_rows": 9,
    "positive_rows": 44,
    "rows": 53
  },
  "run_id": "691921f79b1fa971",
  "schema_version": 1,
  "source_model": "BTCUSD_PURE_PY_MLP",
  "stats": {
    "atr": {
      "mean": 73.28858649396571,
      "std": 44.70043922985922
    },
    "daily_direction_confidence": {
      "mean": 0.4925534528632581,
      "std": 0.08802993474829914
    },
    "daily_pred_body_atr": {
      "mean": 0.3796333086865422,
      "std": 0.14230357099328592
    },
    "daily_pred_range_atr": {
      "mean": 0.9138741607036394,
      "std": 0.17670452750152807
    },
    "ema20_slope_atr": {
      "mean": -0.0004070580132638922,
      "std": 0.39956909820098063
    },
    "ema50_slope_atr": {
      "mean": 0.0013666163570037093,
      "std": 0.2492838947982035
    },
    "entry_hour": {
      "mean": 11.557946428571428,
      "std": 6.91862990992172
    },
    "entry_weekday": {
      "mean": 2.9629613095238096,
      "std": 1.999255853746874
    },
    "estimated_cost_atr": {
      "mean": 0.0030145454345669644,
      "std": 0.0020022268162073874
    },
    "event_count": {
      "mean": 0.006973214285714286,
      "std": 0.08942045146200263
    },
    "high_event_count": {
      "mean": 0.0005357142857142857,
      "std": 0.023139301975607804
    },
    "indicator_adx": {
      "mean": 24.6754636709433,
      "std": 9.958557516302767
    },
    "indicator_atr_pct": {
      "mean": 0.000803630812029201,
      "std": 0.0005330401154348447
    },
    "indicator_bb_position": {
      "mean": 0.49859366395460425,
      "std": 0.309578843161966
    },
    "indicator_bb_width_atr": {
      "mean": 4.323216435004057,
      "std": 1.7662756140697962
    },
    "indicator_body_atr": {
      "mean": 0.5054813239935039,
      "std": 0.44485798229528684
    },
    "indicator_breakout_position_20": {
      "mean": 0.5011183305948053,
      "std": 0.3094648386203018
    },
    "indicator_cci": {
      "mean": -0.6140795883889411,
      "std": 111.61674217004752
    },
    "indicator_ema200_distance_atr": {
      "mean": 0.060502428202975106,
      "std": 4.191265348508287
    },
    "indicator_ema20_50_spread_atr": {
      "mean": 0.011843153098127826,
      "std": 1.051131288741265
    },
    "indicator_ema20_distance_atr": {
      "mean": -0.0020430939295242954,
      "std": 1.3414755274976164
    },
    "indicator_ema50_200_spread_atr": {
      "mean": 0.05070236903437157,
      "std": 2.936468378923499
    },
    "indicator_ema50_distance_atr": {
      "mean": 0.00980005916860353,
      "std": 2.0929685385024865
    },
    "indicator_lower_wick_atr": {
      "mean": 0.23966150000915734,
      "std": 0.23047807381679472
    },
    "indicator_macd_hist_atr": {
      "mean": -0.0016491387757927903,
      "std": 0.21762712154650415
    },
    "indicator_macd_hist_slope_atr": {
      "mean": -5.342765873234642e-05,
      "std": 0.05774020914352573
    },
    "indicator_macd_line_atr": {
      "mean": 0.0022853600771534925,
      "std": 0.6820007619344797
    },
    "indicator_macd_signal_atr": {
      "mean": 0.003934498852946283,
      "std": 0.6381889571071213
    },
    "indicator_minus_di": {
      "mean": 21.996243891562493,
      "std": 7.616688923552487
    },
    "indicator_plus_di": {
      "mean": 21.765191231577163,
      "std": 7.7094828870424
    },
    "indicator_range_atr": {
      "mean": 0.9875112514582444,
      "std": 0.4736870229559684
    },
    "indicator_return_15_atr": {
      "mean": -0.005601858747380001,
      "std": 2.444313712106707
    },
    "indicator_return_5_atr": {
      "mean": -0.0039881749033328735,
      "std": 1.4683101459230086
    },
    "indicator_rsi_centered": {
      "mean": -0.0006624452963003038,
      "std": 0.2303146341573465
    },
    "indicator_stoch_d": {
      "mean": 50.061062300796166,
      "std": 27.455749768382532
    },
    "indicator_stoch_k": {
      "mean": 50.06123153493778,
      "std": 29.575454560507964
    },
    "indicator_upper_wick_atr": {
      "mean": 0.24236842745558318,
      "std": 0.22747707285624671
    },
    "indicator_vote_score": {
      "mean": 0.48944791666666665,
      "std": 0.22989741234731864
    },
    "indicator_williams_r": {
      "mean": -49.93876846506222,
      "std": 29.575454560507964
    },
    "macro_bias_score": {
      "mean": 0.7879784227563711,
      "std": 0.07586444226725965
    },
    "macro_cpi_mom_spread": {
      "mean": 0.0,
      "std": 1e-06
    },
    "macro_cpi_yoy_spread": {
      "mean": 0.0,
      "std": 1e-06
    },
    "macro_growth_spread": {
      "mean": -2.79300127716779,
      "std": 1e-06
    },
    "macro_rate_change_spread": {
      "mean": 0.0,
      "std": 1e-06
    },
    "macro_rate_spread": {
      "mean": 0.0,
      "std": 1e-06
    },
    "macro_real_rate_spread": {
      "mean": 1.08716753956254,
      "std": 1e-06
    },
    "macro_unemployment_change_spread": {
      "mean": 0.0,
      "std": 1e-06
    },
    "macro_unemployment_spread": {
      "mean": 0.0,
      "std": 1e-06
    },
    "macro_usd_yield_10y": {
      "mean": 0.0,
      "std": 1e-06
    },
    "nearest_event_minutes": {
      "mean": 0.0017589285714285714,
      "std": 4.182784288744792
    },
    "rsi": {
      "mean": 49.96687773518498,
      "std": 11.515731707867324
    },
    "spread": {
      "mean": 1499.8568601190477,
      "std": 116.73846780363851
    },
    "strategy_breakout_score": {
      "mean": 0.2625140801629598,
      "std": 0.19692636377991943
    },
    "strategy_composite_score": {
      "mean": 0.6853649960779394,
      "std": 0.19675010894622863
    },
    "strategy_pullback_score": {
      "mean": 0.39982016808170096,
      "std": 0.17397331954418832
    },
    "strategy_reversal_score": {
      "mean": 0.2535315210834261,
      "std": 0.23107053270060002
    },
    "strategy_trend_score": {
      "mean": 0.4942255013014446,
      "std": 0.34613284376330317
    },
    "strategy_volatility_score": {
      "mean": 0.3055663805474896,
      "std": 0.20461498513456325
    }
  },
  "symbols": [
    "BTCUSD"
  ],
  "threshold": 0.6,
  "timeframe": "M1",
  "trained_at_utc": "2026-05-26T16:25:30Z",
  "training_table": "short_trade_training_examples",
  "weights": {
    "b1": [
      -0.045289091765880585,
      0.011794228106737137,
      0.0032499991357326508,
      -0.014613972045481205,
      0.024038145318627357,
      -0.03937618061900139,
      -0.04341376572847366,
      0.03601079806685448,
      0.04661496356129646,
      -0.0029091585893183947,
      0.04900627210736275,
      0.05220601335167885,
      -0.04954969137907028,
      0.06916289776563644,
      0.02921392396092415,
      -0.06285669654607773,
      -0.061723168939352036,
      -0.044270940124988556,
      -0.043595343828201294,
      -0.014066607691347599,
      0.07752947509288788,
      0.07646660506725311,
      0.014564058743417263,
      0.05956825986504555
    ],
    "b2": 0.4499978721141815,
    "w1": [
      [
        0.006584454327821732,
        -0.05654998496174812,
        -0.03144073858857155,
        0.071243517100811,
        -0.008514882996678352,
        -0.07645905762910843,
        -0.03419872000813484,
        -0.05968894436955452,
        -0.08518007397651672,
        0.04247356951236725,
        -0.09981478750705719,
        -0.08971976488828659,
        0.05005104839801788,
        0.10210467129945755,
        -0.024940812960267067,
        -0.04161066189408302,
        -0.016625454649329185,
        -0.1024804413318634,
        -0.003490566508844495,
        -0.05107869952917099,
        -0.10087227821350098,
        0.020782897248864174,
        -0.05582225322723389,
        -0.06977562606334686,
        0.05027112364768982,
        -0.07713442295789719,
        -0.046902094036340714,
        0.007137001026421785,
        0.06374125182628632,
        -0.03109082207083702,
        0.03803400322794914,
        0.009190689772367477,
        0.08481305837631226,
        0.030396101996302605,
        -0.05383395776152611,
        -0.0033284900709986687,
        0.014751505106687546,
        0.059918057173490524,
        0.010718973353505135,
        -0.01099221222102642,
        -0.015710538253188133,
        -0.06017419323325157,
        0.008620833978056908,
        0.03519687429070473,
        -0.01230864878743887,
        0.04930221289396286,
        0.02001294121146202,
        -0.07422208786010742,
        0.054838426411151886,
        -0.0625210702419281,
        0.024329086765646935,
        0.07233615219593048,
        0.04632873460650444,
        0.016990475356578827,
        -0.020431118085980415,
        -0.04676409438252449,
        -0.061891820281744,
        -0.03676414489746094,
        -0.04280395433306694,
        -0.08914848417043686,
        -0.10862596333026886,
        -0.07068753242492676,
        -0.08643606305122375,
        -0.05633779242634773,
        0.03900786489248276,
        -0.04306214675307274,
        -0.07851668447256088,
        0.06506079435348511,
        0.005891514476388693,
        0.03262617439031601,
        -0.08751014620065689,
        0.06284496933221817,
        0.030252916738390923,
        -0.07642613351345062,
        -0.06721368432044983,
        0.0860147550702095,
        -0.010587219148874283,
        0.009695070795714855,
        -0.04438016191124916,
        0.03178216889500618,
        -0.13673506677150726,
        -0.12283783406019211,
        -0.0814337357878685,
        -0.04510257765650749,
        -0.12661968171596527,
        0.06673067808151245,
        -0.03197164833545685,
        -0.1023872122168541,
        0.04175158217549324,
        -0.10613790899515152
      ],
      [
        -0.08028968423604965,
        0.05993737652897835,
        -0.06451323628425598,
        -0.06031917780637741,
        0.013511939905583858,
        -0.034103874117136,
        -0.032591648399829865,
        -0.03597401827573776,
        0.06253549456596375,
        0.028185106813907623,
        0.0991085097193718,
        -0.020318256691098213,
        -0.01679258979856968,
        -0.029403559863567352,
        -0.026027780026197433,
        0.08403404802083969,
        0.026408236473798752,
        -0.013257251121103764,
        0.028319884091615677,
        0.03433385491371155,
        -0.08401733636856079,
        0.05859154090285301,
        0.026217864826321602,
        -0.022696292027831078,
        0.07507142424583435,
        0.05935847759246826,
        -0.0771489366889,
        -0.04492945969104767,
        0.00830534752458334,
        0.042569760233163834,
        0.07999886572360992,
        -0.08164188265800476,
        0.08444863557815552,
        0.025789188221096992,
        -0.007960809394717216,
        0.08887091279029846,
        0.044370174407958984,
        -0.025539236143231392,
        0.049390994012355804,
        0.000819736800622195,
        -0.038789719343185425,
        -0.09700992703437805,
        0.09039729833602905,
        0.0210300050675869,
        0.10281907767057419,
        -0.03276439011096954,
        -0.05871730297803879,
        -0.041648536920547485,
        -0.09668970853090286,
        -0.08424673229455948,
        -0.014626852236688137,
        -0.029769960790872574,
        -0.10100409388542175,
        0.08739637583494186,
        -0.08721599727869034,
        0.0728188157081604,
        0.10172472149133682,
        -0.012296304106712341,
        -0.06577715277671814,
        0.011684822849929333,
        0.0343003049492836,
        0.08107223361730576,
        -0.09223055839538574,
        -0.06089106202125549,
        -0.012262961827218533,
        0.07373380661010742,
        0.05071200802922249,
        -0.033755313605070114,
        0.033395394682884216,
        0.05423785746097565,
        -0.01965208910405636,
        0.07479492574930191,
        -0.03970848396420479,
        -0.011517476290464401,
        0.011473809368908405,
        -0.019987598061561584,
        0.025540346279740334,
        -0.06244073435664177,
        -0.029236195608973503,
        0.10044484585523605,
        0.09834655374288559,
        0.09276966750621796,
        0.11226751655340195,
        -0.000537166662979871,
        -0.004280495923012495,
        0.00969699863344431,
        0.06975157558917999,
        -0.06408537179231644,
        -0.08341510593891144,
        0.10127673298120499
      ],
      [
        0.05640343576669693,
        -0.003170209936797619,
        -0.008191237226128578,
        -0.0033269193954765797,
        0.005432881414890289,
        -0.08440140634775162,
        0.02202545665204525,
        0.08551222085952759,
        0.05290532112121582,
        -0.011217125691473484,
        -0.06929147988557816,
        0.06406421214342117,
        -0.029325688257813454,
        0.0060434490442276,
        -0.017366405576467514,
        -0.012016779743134975,
        -0.10210726410150528,
        -0.06810500472784042,
        -0.07836665213108063,
        -0.002708536572754383,
        -0.04299989715218544,
        -0.06720836460590363,
        0.06128380447626114,
        0.02728356420993805,
        0.038954172283411026,
        -0.05087796226143837,
        0.001998507184907794,
        -0.10132274776697159,
        0.06442803889513016,
        0.03534331172704697,
        0.07954556494951248,
        0.021957963705062866,
        -0.006724393926560879,
        0.019938282668590546,
        0.08458877354860306,
        -0.05235660448670387,
        0.07869219779968262,
        0.020761793479323387,
        -0.09583120793104172,
        0.03488851338624954,
        0.020905159413814545,
        0.0950002446770668,
        -0.09075108170509338,
        -0.058924391865730286,
        0.0524560809135437,
        -0.03505668044090271,
        -0.08166627585887909,
        0.012472511269152164,
        -0.0012857335386797786,
        0.023914841935038567,
        -0.007408691570162773,
        0.031827233731746674,
        -0.05385817959904671,
        -0.053843434900045395,
        -0.02570430561900139,
        -0.04552951082587242,
        0.08413056284189224,
        0.04054374620318413,
        -0.03276124224066734,
        0.049042314291000366,
        0.10232476145029068,
        0.10249193012714386,
        -0.08196848630905151,
        0.010575738735496998,
        0.09041313827037811,
        0.043428778648376465,
        0.034585680812597275,
        0.006593683734536171,
        -0.09914469718933105,
        0.015139404684305191,
        0.08744783699512482,
        -0.014979236759245396,
        0.03600309044122696,
        0.09829645603895187,
        -0.0758056715130806,
        0.0007459273329004645,
        -0.08983567357063293,
        -0.01905282586812973,
        0.02501562610268593,
        -0.06446332484483719,
        -0.006098104175180197,
        -0.014536481350660324,
        0.008382520638406277,
        0.07167493551969528,
        0.01748051866889,
        0.009878823533654213,
        -0.09894821792840958,
        0.0012446107575669885,
        0.008302150294184685,
        0.007738042622804642
      ],
      [
        0.05167572200298309,
        -0.002048574620857835,
        -0.012181033380329609,
        0.10429389029741287,
        -0.06015701964497566,
        -0.023735595867037773,
        -0.02836758829653263,
        0.05467594414949417,
        -0.03911089524626732,
        -0.04976864904165268,
        0.05721375718712807,
        -0.08112911880016327,
        0.05105063319206238,
        -0.06366898119449615,
        0.10440779477357864,
        -0.03937382623553276,
        0.009514236822724342,
        0.012044383212924004,
        0.020910771563649178,
        0.018375985324382782,
        -0.0859115794301033,
        0.018943261355161667,
        -0.08627474308013916,
        -0.03695695847272873,
        -0.06947594881057739,
        -0.013498600572347641,
        0.025631999596953392,
        0.06582777947187424,
        0.02310086041688919,
        0.023154808208346367,
        -0.0690087080001831,
        -0.03996189683675766,
        -0.008518984541296959,
        0.02050314098596573,
        -0.02825041674077511,
        -0.014185994863510132,
        -0.08876372128725052,
        0.09605176746845245,
        -0.013390916399657726,
        0.05105190351605415,
        0.07072804868221283,
        0.03371620178222656,
        0.08654472231864929,
        -0.000808888697065413,
        0.0032335720025002956,
        -0.03178169205784798,
        -0.02894168719649315,
        -0.05798707902431488,
        -0.0018928589997813106,
        0.05356074497103691,
        0.10276525467634201,
        0.06809218972921371,
        0.09473566710948944,
        -0.00025092330179177225,
        0.006288975477218628,
        -0.02519480139017105,
        0.0945444330573082,
        -0.015635451301932335,
        0.055493734776973724,
        -0.02395644411444664,
        0.042317911982536316,
        -0.002548500429838896,
        -0.08274123072624207,
        -0.06347445398569107,
        0.07749424874782562,
        -0.03407365828752518,
        0.06080669164657593,
        -0.05224823206663132,
        -0.05919887125492096,
        -0.0630374327301979,
        0.0048566353507339954,
        -0.0028497905004769564,
        0.0774761363863945,
        -0.05250946059823036,
        0.06461472809314728,
        0.10071828216314316,
        0.017001260071992874,
        -0.07245149463415146,
        -0.022676751017570496,
        -0.0863979235291481,
        -0.07421721518039703,
        0.06775710731744766,
        -0.02979167550802231,
        0.06468051671981812,
        -0.10156060010194778,
        0.09940672665834427,
        -0.08478131890296936,
        0.07764407247304916,
        -0.09291023015975952,
        -0.04212697967886925
      ],
      [
        -0.0297279953956604,
        0.002549512544646859,
        -0.009330284781754017,
        -0.0844932496547699,
        0.05531842261552811,
        0.06137556955218315,
        -0.018195785582065582,
        0.028231540694832802,
        0.05835476145148277,
        -0.025894958525896072,
        0.0879676342010498,
        -0.027221720665693283,
        0.013399244286119938,
        -0.08891929686069489,
        -0.09632935374975204,
        0.02655056118965149,
        0.009125285781919956,
        0.039887089282274246,
        -0.012576894834637642,
        0.0863955169916153,
        -0.002410354558378458,
        -0.06425213068723679,
        0.007033172063529491,
        0.003579019568860531,
        0.016847165301442146,
        0.050891656428575516,
        -0.08727716654539108,
        0.0744585394859314,
        -0.09237543493509293,
        0.08085090667009354,
        -0.004727458581328392,
        0.054907798767089844,
        0.03545774519443512,
        0.06497833877801895,
        0.09160593897104263,
        0.022649405524134636,
        -0.09202482551336288,
        -0.05370992794632912,
        0.008813309483230114,
        -0.052215274423360825,
        -0.05521484091877937,
        0.03615193068981171,
        0.041476719081401825,
        -0.0012397924438118935,
        -0.019387880340218544,
        -0.04560881480574608,
        -0.012796771712601185,
        -0.032394420355558395,
        0.07970960438251495,
        -0.036126043647527695,
        -0.04034370183944702,
        0.010814995504915714,
        0.09082489460706711,
        0.09146635234355927,
        -0.0005707571981474757,
        -0.0890459269285202,
        0.039426159113645554,
        0.047897178679704666,
        -0.08043291419744492,
        -0.02981620281934738,
        -0.002485478762537241,
        0.0023817920591682196,
        -0.05851304531097412,
        0.01331895962357521,
        0.07467801868915558,
        0.008059659972786903,
        0.0134757524356246,
        0.03815262392163277,
        -0.08920800685882568,
        0.09522294998168945,
        -0.07173415273427963,
        -0.07114488631486893,
        -0.003032554406672716,
        -0.0782204195857048,
        0.10100626945495605,
        -0.05124141275882721,
        0.024663537740707397,
        -0.034665025770664215,
        0.0806022360920906,
        -0.00947248749434948,
        0.04834999889135361,
        0.00541824521496892,
        -0.07481104880571365,
        -0.03724376857280731,
        0.029324041679501534,
        -0.006231040693819523,
        0.11225007474422455,
        0.023216284811496735,
        0.0027329393196851015,
        0.10312622785568237
      ],
      [
        -0.05402692034840584,
        0.10566629469394684,
        -0.031176287680864334,
        -0.030384322628378868,
        0.07915323227643967,
        -0.00987602211534977,
        -0.06464827060699463,
        -0.04504033923149109,
        -0.04685620591044426,
        0.006103231105953455,
        0.026825258508324623,
        0.011688810773193836,
        -0.03227093070745468,
        -0.0616832859814167,
        0.034165866672992706,
        -0.044878870248794556,
        0.05629965290427208,
        -0.01844310387969017,
        0.09186761826276779,
        0.0947972908616066,
        -0.02380661480128765,
        -0.031492289155721664,
        -0.0711388811469078,
        -0.0012284333351999521,
        0.044547613710165024,
        -0.07640764117240906,
        0.03224802017211914,
        -0.02763231284916401,
        0.012500329874455929,
        -0.003670457983389497,
        0.03655200079083443,
        0.0236738920211792,
        -0.0890459343791008,
        0.022700417786836624,
        -0.09492472559213638,
        -0.03255900368094444,
        0.022483404725790024,
        -0.04859520494937897,
        -0.042869389057159424,
        -0.06858061999082565,
        -0.015322688966989517,
        0.10608473420143127,
        0.08997514843940735,
        0.07411301881074905,
        -0.09476614743471146,
        -0.1032080203294754,
        0.06272821128368378,
        0.10121036320924759,
        0.002212933963164687,
        0.08239340037107468,
        -0.0032998572569340467,
        -0.041736990213394165,
        -0.08860877901315689,
        0.10626828670501709,
        -0.09830636531114578,
        -0.012668350711464882,
        0.040303487330675125,
        -0.007528410293161869,
        0.042432405054569244,
        0.0017005872214213014,
        0.03974808380007744,
        -0.08743436634540558,
        -0.10265965759754181,
        -0.1205563098192215,
        -0.05212831497192383,
        0.0486118458211422,
        -0.01892983354628086,
        -0.13286851346492767,
        0.026332590728998184,
        0.058559950441122055,
        -0.019849877804517746,
        0.0669025182723999,
        -0.07239746302366257,
        0.004929785151034594,
        -0.11206861585378647,
        -0.10301408916711807,
        -0.0034224167466163635,
        0.03880453482270241,
        0.0029877834022045135,
        -0.018347909674048424,
        0.046027373522520065,
        0.02533542364835739,
        0.052526168525218964,
        -0.06706839799880981,
        0.004109994042664766,
        -0.007616500835865736,
        -0.02480507083237171,
        -0.09509418159723282,
        -0.03206833451986313,
        0.050979290157556534
      ],
      [
        0.08512981981039047,
        0.011009330861270428,
        -0.07821079343557358,
        0.04168732836842537,
        0.055794499814510345,
        0.08625583350658417,
        0.0048512001521885395,
        0.08782394975423813,
        -0.0784774199128151,
        0.07162206619977951,
        -0.04816979914903641,
        -0.09894414246082306,
        -0.09791552275419235,
        0.024012619629502296,
        0.07348644733428955,
        0.04563172161579132,
        -0.06394549459218979,
        0.039238981902599335,
        -0.002596436068415642,
        0.07762551307678223,
        0.04401499032974243,
        0.09641194343566895,
        0.07766686379909515,
        0.0159443449229002,
        0.07826284319162369,
        -0.03687603026628494,
        -0.013355033472180367,
        0.0690438374876976,
        -0.01657857745885849,
        -0.005184569396078587,
        -0.018610365688800812,
        -0.05596253648400307,
        -0.01850944012403488,
        0.09845675528049469,
        0.09908904880285263,
        0.0027782456018030643,
        0.024218006059527397,
        -0.011696322821080685,
        -0.01875784806907177,
        -0.029011789709329605,
        0.011131036095321178,
        -0.007632310967892408,
        0.10563468188047409,
        -0.02840736135840416,
        -0.07310373336076736,
        -0.03983018174767494,
        -0.04879958927631378,
        -0.04300093278288841,
        0.06280528008937836,
        -0.06302040070295334,
        -0.07983441650867462,
        -0.056219637393951416,
        0.07898876070976257,
        -0.0784795805811882,
        0.06267895549535751,
        -0.011972693726420403,
        0.001419599517248571,
        -0.007765238638967276,
        -0.10058511793613434,
        -0.007483800873160362,
        0.041560932993888855,
        -0.09807213395833969,
        0.06593197584152222,
        -0.04513857513666153,
        0.0892486646771431,
        -0.06449048966169357,
        0.008148075081408024,
        -0.13029523193836212,
        -0.052039239555597305,
        -0.086997851729393,
        -0.046083055436611176,
        0.009904565289616585,
        -0.017493225634098053,
        -0.0351974293589592,
        -0.11945676803588867,
        -0.015535694546997547,
        -0.05859541893005371,
        -0.029722267761826515,
        0.06915678083896637,
        0.08569000661373138,
        0.0073653035797178745,
        -0.1144292876124382,
        0.043955594301223755,
        0.09735715389251709,
        0.013166879303753376,
        -0.08219758421182632,
        -0.056089628487825394,
        -0.10843317210674286,
        -0.0904359370470047,
        -0.011687158606946468
      ],
      [
        0.06907171756029129,
        0.0318562313914299,
        -0.0680428147315979,
        0.037929486483335495,
        0.07643867284059525,
        0.07183533161878586,
        0.052129827439785004,
        -0.0066978782415390015,
        -0.008326595649123192,
        0.013359006494283676,
        0.04537623003125191,
        0.06595644354820251,
        0.007496632635593414,
        0.04372952878475189,
        0.02594214677810669,
        0.054452329874038696,
        0.022225692868232727,
        0.027191709727048874,
        0.06461557745933533,
        0.029142232611775398,
        0.04784729331731796,
        0.03009507618844509,
        0.027947736904025078,
        -0.06943054497241974,
        -0.056580495089292526,
        -0.07481534779071808,
        0.06617160886526108,
        -0.07903577387332916,
        0.005621898919343948,
        -0.06303848326206207,
        -0.0008561363792978227,
        0.000637191638816148,
        -0.018112534657120705,
        -0.08538501709699631,
        0.09758453816175461,
        -0.09575331211090088,
        -0.0035658141132444143,
        -0.10353215783834457,
        0.013535955920815468,
        -0.047752201557159424,
        -0.026477327570319176,
        0.06419134140014648,
        0.08395051211118698,
        0.05783848464488983,
        0.046113330870866776,
        -0.033735111355781555,
        0.049117185175418854,
        -0.0674910843372345,
        -0.05348614603281021,
        -0.055912431329488754,
        0.07355514913797379,
        -0.09417586028575897,
        0.048350244760513306,
        -0.05305095016956329,
        0.08783277124166489,
        -0.06401292234659195,
        0.0001475246826885268,
        0.05557728931307793,
        0.0333552323281765,
        -0.05576784908771515,
        -0.04343164339661598,
        0.00027589904493652284,
        -0.03820687159895897,
        -0.008459234610199928,
        0.0750160962343216,
        -0.014723810367286205,
        -0.023900320753455162,
        0.03171021491289139,
        -0.07546645402908325,
        0.08178941905498505,
        0.06362006068229675,
        0.08676544576883316,
        -0.015577664598822594,
        -0.05660798028111458,
        0.0380745492875576,
        0.057842932641506195,
        -0.050721798092126846,
        0.0033681197091937065,
        0.11175791174173355,
        -0.05059319734573364,
        0.04203921929001808,
        0.0004733408277388662,
        0.07935524731874466,
        0.05485578253865242,
        0.10108554363250732,
        -0.0621170848608017,
        -0.02720138058066368,
        -0.08316493779420853,
        0.0638715848326683,
        0.0002798187779262662
      ],
      [
        -0.008634689263999462,
        -0.09338469803333282,
        0.04860595241189003,
        0.07634272426366806,
        -0.06412198394536972,
        0.08720791339874268,
        -0.05458410456776619,
        -0.081487275660038,
        0.0671592503786087,
        -0.03797050938010216,
        -0.05653325468301773,
        -0.08928415179252625,
        -0.09067089855670929,
        -0.03558403253555298,
        -0.018162505701184273,
        0.008516320958733559,
        -0.06054740399122238,
        -0.030783094465732574,
        -0.02647331729531288,
        0.011744214221835136,
        -0.05725612863898277,
        0.048190515488386154,
        0.011670269072055817,
        -0.05814275145530701,
        -0.07574930042028427,
        -0.03197430074214935,
        0.0015392956556752324,
        -0.014856558293104172,
        0.07119996100664139,
        0.027367444708943367,
        -0.03864426910877228,
        0.05001470819115639,
        -0.0026342077180743217,
        -0.032227952033281326,
        0.07218404114246368,
        0.07076486200094223,
        0.07858158648014069,
        0.010945579968392849,
        0.012615622021257877,
        -0.05809609591960907,
        0.001864531310275197,
        -0.07618483901023865,
        -0.003474839963018894,
        0.031111452728509903,
        0.029895788058638573,
        -0.05011092871427536,
        0.046681877225637436,
        -0.06870126724243164,
        0.052995868027210236,
        -0.054391708225011826,
        -0.0042447797022759914,
        -0.06516283005475998,
        0.010247535072267056,
        -0.08774495869874954,
        0.02756587788462639,
        -0.08470717817544937,
        0.08688326925039291,
        -0.07379207015037537,
        -0.025195134803652763,
        -0.10088539123535156,
        -0.022468358278274536,
        0.04866906628012657,
        0.07755614072084427,
        0.098037950694561,
        0.01785685494542122,
        -0.0838693231344223,
        0.09358197450637817,
        0.04882454872131348,
        0.057075370103120804,
        -0.06164386123418808,
        0.10901830345392227,
        0.00529611436650157,
        0.08811065554618835,
        0.10075359046459198,
        -0.06233867630362511,
        -0.012972305528819561,
        -0.010997086763381958,
        -0.095164954662323,
        0.07760023325681686,
        0.04970564320683479,
        0.09908352047204971,
        0.10461898893117905,
        -0.061159200966358185,
        0.00966318417340517,
        -0.06821229308843613,
        0.10162074118852615,
        -0.0362115241587162,
        0.004839960485696793,
        -0.04419448971748352,
        -0.05277172103524208
      ],
      [
        -0.08144693821668625,
        -0.07920873910188675,
        0.04599853605031967,
        -0.06878597289323807,
        -0.004268176853656769,
        0.019463706761598587,
        -0.03499943017959595,
        -0.04028297960758209,
        0.018345464020967484,
        -0.03505304828286171,
        -0.07790850847959518,
        0.0053428527899086475,
        -0.06917572021484375,
        0.1032809391617775,
        0.10192829370498657,
        0.015065147541463375,
        0.054390981793403625,
        -0.017792988568544388,
        -0.014931315556168556,
        0.036160871386528015,
        0.043928008526563644,
        0.037417296320199966,
        0.05891042575240135,
        -0.01842476986348629,
        0.07736124098300934,
        0.026259995996952057,
        0.06641514599323273,
        -0.04183512181043625,
        0.005375421140342951,
        -0.08768263459205627,
        -0.05841236189007759,
        0.06518421322107315,
        0.06919899582862854,
        -0.01186954602599144,
        -0.027832629159092903,
        0.05936950072646141,
        0.048653505742549896,
        0.0919131189584732,
        -0.016439996659755707,
        -0.008213355205953121,
        -0.031293414533138275,
        -0.018829315900802612,
        0.0007424519280903041,
        -0.09539628028869629,
        -0.04691318795084953,
        -0.08216000348329544,
        0.10261016339063644,
        -0.04257641360163689,
        0.08925673365592957,
        0.09545475989580154,
        0.060521550476551056,
        0.03127215430140495,
        0.004079957026988268,
        -0.05756571143865585,
        0.07933155447244644,
        -0.06578875333070755,
        0.04827990010380745,
        -0.07795953750610352,
        0.05917886272072792,
        0.06525323539972305,
        -0.09554336965084076,
        0.04305073618888855,
        0.0766870304942131,
        0.08402273058891296,
        -0.10371369123458862,
        -0.04724115505814552,
        0.08594153821468353,
        -0.07768267393112183,
        0.08875542879104614,
        -0.06753738224506378,
        0.03908485919237137,
        0.07304832339286804,
        0.013293704017996788,
        -0.05504602938890457,
        -0.04946461692452431,
        -0.030109606683254242,
        -0.06422276049852371,
        0.10301341116428375,
        0.04745656996965408,
        -0.057801831513643265,
        0.020393529906868935,
        -0.09173416346311569,
        0.02466609887778759,
        -0.0051569463685154915,
        -0.09952424466609955,
        -0.09597352892160416,
        0.09999743849039078,
        0.0896812453866005,
        0.010046400129795074,
        -0.07014916092157364
      ],
      [
        -0.042133986949920654,
        -0.10240864753723145,
        0.04830755665898323,
        0.04283115267753601,
        0.09445685148239136,
        -0.05438076704740524,
        0.04935725778341293,
        0.09309122711420059,
        0.04744284227490425,
        0.044847648590803146,
        0.04147407039999962,
        0.05115170404314995,
        -0.08692828565835953,
        0.02575283870100975,
        -0.00019576972408685833,
        0.07854248583316803,
        0.07645571231842041,
        -0.010456940159201622,
        0.07083464413881302,
        0.10490792244672775,
        -0.025723250582814217,
        -0.03999558836221695,
        -0.019561845809221268,
        -0.05381162092089653,
        -0.08207061141729355,
        0.009317140094935894,
        0.02152680605649948,
        0.003290361724793911,
        -0.06296700984239578,
        0.011730997823178768,
        -0.04970895126461983,
        -0.05846666917204857,
        0.0486433207988739,
        0.09509886056184769,
        -0.0699656531214714,
        0.061075933277606964,
        -0.0951356440782547,
        -0.01336868666112423,
        0.07575759291648865,
        0.01451065856963396,
        0.03815107420086861,
        0.06947560608386993,
        0.05829889327287674,
        0.07436772435903549,
        0.048994697630405426,
        -0.1018206849694252,
        -0.05881179869174957,
        -0.10032059252262115,
        -0.07564584910869598,
        0.06460954248905182,
        -0.016529083251953125,
        0.027297930791974068,
        0.058038052171468735,
        0.03885973244905472,
        -0.05433660373091698,
        0.036593761295080185,
        -0.04142388701438904,
        -0.025672711431980133,
        0.0019022589549422264,
        0.06048088148236275,
        0.11137498915195465,
        0.09686356782913208,
        -0.06864594668149948,
        0.07113126665353775,
        0.01544218696653843,
        0.0691891610622406,
        0.06283073872327805,
        -0.026922522112727165,
        0.09751757979393005,
        0.05085640028119087,
        0.11152441799640656,
        0.029853640124201775,
        0.008700943551957607,
        -0.06105971708893776,
        0.07336132228374481,
        -0.07350864261388779,
        -0.004881139378994703,
        -0.08354555070400238,
        0.05044613778591156,
        -0.06663626432418823,
        0.04654955118894577,
        0.11671610921621323,
        -0.07659859955310822,
        0.06331188231706619,
        -0.07167178392410278,
        -0.048690833151340485,
        -0.013611732050776482,
        0.07001154869794846,
        0.0018031481886282563,
        -0.08070748299360275
      ],
      [
        0.03264568746089935,
        -0.06318877637386322,
        -0.008866958320140839,
        0.06054379791021347,
        -0.08472207188606262,
        -0.045384619385004044,
        0.026270484551787376,
        0.04966852813959122,
        -0.08688381314277649,
        -0.09709297865629196,
        -0.03279828280210495,
        -0.046545062214136124,
        0.04687291383743286,
        -0.10260312259197235,
        -0.04461011663079262,
        0.099772609770298,
        -0.06304936110973358,
        0.05314049497246742,
        0.045089635998010635,
        -0.01712489128112793,
        0.060034070163965225,
        0.030581168830394745,
        0.008509280160069466,
        0.022026432678103447,
        0.10686101019382477,
        -0.0519699826836586,
        -0.03148360550403595,
        -0.05892137810587883,
        0.06300368160009384,
        0.03889147564768791,
        -0.07424774020910263,
        0.07288672775030136,
        -0.002623265376314521,
        0.08059479296207428,
        -0.015118185430765152,
        0.05180951580405235,
        0.00901440717279911,
        -0.10527658462524414,
        0.013300818391144276,
        0.09979302436113358,
        -0.008191199973225594,
        -0.007212624419480562,
        -0.009346400387585163,
        -0.0649617612361908,
        0.011115862987935543,
        -0.07179870456457138,
        0.003141413675621152,
        -0.045420750975608826,
        -0.01456128153949976,
        -0.03620278462767601,
        0.07098748534917831,
        -0.00534316711127758,
        -0.09990641474723816,
        -0.034334685653448105,
        -0.07217977941036224,
        -0.023458100855350494,
        -0.08046483993530273,
        0.09100787341594696,
        -0.02898349054157734,
        0.09680639207363129,
        -0.06866846233606339,
        0.012008773162961006,
        0.02766544744372368,
        0.07619167864322662,
        0.016710015013813972,
        0.05330586060881615,
        0.022243410348892212,
        0.07417719066143036,
        -0.08069640398025513,
        0.05427198112010956,
        -0.06806565821170807,
        0.0014063097769394517,
        -0.011333312839269638,
        0.05766454339027405,
        -0.05542324483394623,
        0.019429782405495644,
        -0.05532940849661827,
        0.015713408589363098,
        0.0872451588511467,
        -0.012735373340547085,
        0.06959296762943268,
        0.010302049107849598,
        0.01895708404481411,
        -0.07190600782632828,
        0.09769982099533081,
        -0.030490824952721596,
        -0.006709960289299488,
        0.03369152545928955,
        -0.024212978780269623,
        0.06712855398654938
      ],
      [
        0.09379100799560547,
        0.014864878728985786,
        -0.007191783748567104,
        -0.04494031146168709,
        -0.0831356942653656,
        0.10317619889974594,
        0.10387139022350311,
        -0.07042628526687622,
        0.04190544784069061,
        0.04185789078474045,
        -0.03620161861181259,
        0.09115293622016907,
        -0.014183194376528263,
        -0.041774503886699677,
        0.017986375838518143,
        -0.08025570213794708,
        0.09079865366220474,
        0.089790940284729,
        -0.07527825981378555,
        -0.01939348503947258,
        0.005266365595161915,
        0.07975614070892334,
        0.09681559354066849,
        0.04742375388741493,
        0.006334163248538971,
        -0.07462488114833832,
        0.06293956935405731,
        -0.0649319663643837,
        0.010196034796535969,
        0.028850657865405083,
        0.06513425707817078,
        -0.03981022909283638,
        -0.05138431861996651,
        -0.08750646561384201,
        0.029783638194203377,
        -0.07665226608514786,
        0.028856253251433372,
        -0.07809180021286011,
        0.09851357340812683,
        0.020397914573550224,
        0.030931953340768814,
        0.11220104992389679,
        -0.06227993592619896,
        0.09568382054567337,
        -0.08622074872255325,
        0.014843713492155075,
        0.06674377620220184,
        -0.06127145513892174,
        0.011787901632487774,
        -0.09828231483697891,
        -0.09639052301645279,
        -0.0005012225592508912,
        -0.08025552332401276,
        0.016970228403806686,
        0.01385571900755167,
        -0.056652095168828964,
        0.07114306837320328,
        0.10975497961044312,
        0.013072336092591286,
        0.05373474583029747,
        0.004488083533942699,
        -0.017956003546714783,
        -0.09315810352563858,
        -0.03025955706834793,
        -0.031041806563735008,
        0.06894781440496445,
        0.01896790973842144,
        -0.13032466173171997,
        0.04247545823454857,
        -0.03966475650668144,
        -0.07445038855075836,
        0.0961800292134285,
        -0.0764819011092186,
        -0.023957695811986923,
        -0.09859476238489151,
        0.03310256078839302,
        -0.051328860223293304,
        -0.07717420905828476,
        -0.028626568615436554,
        0.04387177899479866,
        0.02792411670088768,
        -0.055587951093912125,
        -0.12746590375900269,
        -0.060072336345911026,
        0.05066494643688202,
        0.041943591088056564,
        0.03928883746266365,
        0.030079646036028862,
        -0.09323205798864365,
        0.06750036031007767
      ],
      [
        -0.08481118083000183,
        -0.09559645503759384,
        -0.006889379117637873,
        -0.0806858167052269,
        0.03834552317857742,
        0.06642596423625946,
        0.044508304446935654,
        -0.03557152673602104,
        0.07286914438009262,
        0.033471208065748215,
        0.03276847302913666,
        0.015390122309327126,
        0.053116269409656525,
        0.006195653695613146,
        0.08917463570833206,
        -0.020008470863103867,
        0.08164142072200775,
        0.04786366969347,
        0.07019266486167908,
        -0.06254532188177109,
        0.10437726974487305,
        -0.05909694731235504,
        0.03214963898062706,
        0.09265562891960144,
        -0.019406745210289955,
        0.04771341383457184,
        0.019685689359903336,
        0.043659765273332596,
        0.060332175344228745,
        0.08708260208368301,
        0.0020623751915991306,
        -0.08523064106702805,
        -0.08848531544208527,
        0.007878107018768787,
        0.026826363056898117,
        -0.013057008385658264,
        -0.05855889990925789,
        0.03437204658985138,
        -0.06372302025556564,
        0.05328049883246422,
        0.06049695238471031,
        -0.003613925538957119,
        0.06655725091695786,
        -0.07437850534915924,
        -0.0830584317445755,
        -0.08589537441730499,
        -0.01820402964949608,
        0.07777833193540573,
        0.10184472799301147,
        -0.005766620393842459,
        -0.04706936702132225,
        0.07226938754320145,
        0.07620842009782791,
        -0.008737387135624886,
        0.024154236540198326,
        0.01921185292303562,
        -0.006554294843226671,
        0.04928627237677574,
        -0.0971788614988327,
        -0.03728696331381798,
        -0.05466311424970627,
        0.05757788196206093,
        0.022762112319469452,
        0.12313154339790344,
        0.030026771128177643,
        -0.01480394508689642,
        0.10207298398017883,
        0.14610669016838074,
        0.1280841827392578,
        -0.02768205665051937,
        0.024623844772577286,
        0.009258028119802475,
        0.07727021723985672,
        -0.030003447085618973,
        -0.07999956607818604,
        0.01968402974307537,
        0.08856868743896484,
        -0.048623230308294296,
        0.03157022222876549,
        -0.043381933122873306,
        0.01786157861351967,
        -0.04146905243396759,
        0.12192873656749725,
        0.02169693075120449,
        -0.04842128977179527,
        0.03191765397787094,
        0.012029198929667473,
        0.04859427735209465,
        -0.04038732871413231,
        0.039919961243867874
      ],
      [
        0.05791750177741051,
        0.10050687193870544,
        0.09834924340248108,
        0.05648288503289223,
        0.06676072627305984,
        0.09283553063869476,
        0.04264034703373909,
        0.04999496787786484,
        0.07908616960048676,
        0.03139922022819519,
        -0.09955354034900665,
        -0.08188627660274506,
        -0.014478258788585663,
        0.06903405487537384,
        -0.09634324163198471,
        -0.040311940014362335,
        -0.028155524283647537,
        -0.06337494403123856,
        -0.001369371428154409,
        0.10234448313713074,
        0.032547783106565475,
        -0.005522911436855793,
        -0.026148993521928787,
        0.03949525207281113,
        0.0034656659699976444,
        -0.061155054718256,
        0.029759874567389488,
        -0.09131370484828949,
        0.08014999330043793,
        0.012553595006465912,
        0.09696225076913834,
        -0.08390909433364868,
        0.03165099024772644,
        0.08767552673816681,
        0.022758761420845985,
        0.08287766575813293,
        0.08537661284208298,
        0.08628597110509872,
        -0.09874492883682251,
        -0.060255493968725204,
        -0.10399971157312393,
        0.09875082224607468,
        -0.0001904764649225399,
        0.003317710477858782,
        0.05416003614664078,
        -0.008689207956194878,
        0.09297288209199905,
        -0.033288098871707916,
        -0.012677127495408058,
        -0.024598902091383934,
        -0.08924828469753265,
        -0.04142329841852188,
        0.06870071589946747,
        0.019951840862631798,
        0.058369457721710205,
        -0.01192526239901781,
        -0.039526794105768204,
        0.08365918695926666,
        0.04794283211231232,
        0.06607234477996826,
        0.08687490969896317,
        0.10926477611064911,
        0.054658036679029465,
        0.04920044541358948,
        0.01770312897861004,
        -0.09794282168149948,
        -0.027002055197954178,
        -0.05651894211769104,
        0.06425593793392181,
        -0.007573115173727274,
        -0.02716200053691864,
        -0.00126570463180542,
        -0.07237614691257477,
        -0.08074112236499786,
        0.08788575232028961,
        0.09689663350582123,
        -0.06043132767081261,
        0.05907754600048065,
        -0.044455915689468384,
        0.032331112772226334,
        0.09456394612789154,
        -0.05757693201303482,
        -0.02857792377471924,
        0.011997572146356106,
        -0.08658403903245926,
        0.043481726199388504,
        -0.0410279855132103,
        -0.021267928183078766,
        0.009672634303569794,
        0.10120713710784912
      ],
      [
        0.09512628614902496,
        -0.02941495180130005,
        -0.034861333668231964,
        0.06466855853796005,
        0.038522955030202866,
        -0.04568763077259064,
        -0.08560395240783691,
        0.0235950518399477,
        0.013727315701544285,
        0.004996380768716335,
        -0.02668522298336029,
        -0.07406092435121536,
        0.014306452125310898,
        -0.0643487423658371,
        -0.03335562348365784,
        0.022306712344288826,
        0.09894417971372604,
        -0.04836045578122139,
        -0.10077209770679474,
        -0.03640725836157799,
        0.050693608820438385,
        0.05744694918394089,
        -0.032569337636232376,
        0.08330311626195908,
        0.06227455660700798,
        -0.005365497898310423,
        -0.03129272535443306,
        -0.0031466057989746332,
        0.0869826003909111,
        0.08376920968294144,
        -0.09547364711761475,
        0.05178160220384598,
        -0.06660645455121994,
        0.08766977488994598,
        0.06984718888998032,
        -0.0966024100780487,
        0.04594140127301216,
        5.329853229341097e-05,
        0.02206246554851532,
        0.037097297608852386,
        -0.10334239900112152,
        -0.07950402051210403,
        0.024397986009716988,
        0.0441434271633625,
        0.10573490709066391,
        -0.049647510051727295,
        0.012355595827102661,
        0.04706886038184166,
        0.08576921373605728,
        -0.006001396104693413,
        -0.0014033833285793662,
        -0.05917605012655258,
        0.01165463775396347,
        -0.043357741087675095,
        0.06660296767950058,
        -0.07836447656154633,
        0.08540399372577667,
        0.04567837715148926,
        -0.08999735116958618,
        -0.06733919680118561,
        -0.06010259687900543,
        -0.10626325011253357,
        -0.07806271314620972,
        -0.1332339346408844,
        -0.027515560388565063,
        0.06358709186315536,
        0.04796525835990906,
        -0.017353244125843048,
        0.0015605161897838116,
        -0.020882979035377502,
        -0.021020425483584404,
        -0.08441617339849472,
        0.027409503236413002,
        0.01601462997496128,
        -0.09748100489377975,
        0.06736234575510025,
        -0.08455701917409897,
        -0.04467157647013664,
        -0.12877154350280762,
        0.05265834182500839,
        -0.03599199652671814,
        -0.07126418501138687,
        -0.042231302708387375,
        0.03149435296654701,
        -0.11500507593154907,
        -0.010637464933097363,
        0.020481334999203682,
        -0.04789012670516968,
        0.06822419911623001,
        -0.03245464339852333
      ],
      [
        0.05704602226614952,
        0.029630165547132492,
        0.017480572685599327,
        -0.03131527826189995,
        0.058635495603084564,
        0.10796629637479782,
        -0.03929390385746956,
        -0.036746565252542496,
        0.03950636833906174,
        0.057854484766721725,
        -0.04948597401380539,
        0.05831386521458626,
        0.0414348840713501,
        0.08088986575603485,
        0.03218250349164009,
        0.09536205977201462,
        -0.03215266764163971,
        0.06505335867404938,
        0.02759336680173874,
        -0.02928737923502922,
        -0.05348994582891464,
        -0.03892246633768082,
        0.07712764292955399,
        0.07820752263069153,
        0.02075623720884323,
        -0.0701318308711052,
        0.009348983876407146,
        0.10258778184652328,
        -0.10223717242479324,
        0.014245283789932728,
        -0.07352590560913086,
        0.05928993225097656,
        -0.048735108226537704,
        -0.08036419749259949,
        0.007744037080556154,
        -0.05289768427610397,
        -0.018527250736951828,
        -0.09617403894662857,
        0.06744381785392761,
        -0.04056454077363014,
        -0.03082428127527237,
        -0.021011589094996452,
        0.006243647076189518,
        -0.06211996451020241,
        0.09564296901226044,
        -0.0885758027434349,
        0.09744197130203247,
        0.08866256475448608,
        -0.07174530625343323,
        0.04715227708220482,
        0.030860641971230507,
        0.004069532733410597,
        0.03365384042263031,
        0.03232944756746292,
        -0.08314049988985062,
        -0.02659209445118904,
        0.06756339222192764,
        0.0697203129529953,
        0.025663862004876137,
        0.03267750144004822,
        -0.0330815352499485,
        0.0025908013340085745,
        -0.07898923754692078,
        -0.11769243329763412,
        -0.09590044617652893,
        0.04102266579866409,
        -0.08502192050218582,
        -0.05395343527197838,
        0.04084388539195061,
        -0.07210636883974075,
        -0.0967908501625061,
        0.0941392332315445,
        0.040927592664957047,
        0.06455923616886139,
        -0.004563859198242426,
        0.059432078152894974,
        -0.0010647951858118176,
        0.0887637734413147,
        0.01681862398982048,
        0.002122498583048582,
        -0.03392747789621353,
        0.036312151700258255,
        -0.0358581617474556,
        -0.02068975940346718,
        -0.057687681168317795,
        -0.02667909488081932,
        -0.04924118146300316,
        -0.11405246704816818,
        -0.07951738685369492,
        0.007909412495791912
      ],
      [
        0.0951019898056984,
        -0.10082166641950607,
        0.09034425020217896,
        0.015895355492830276,
        0.05557049438357353,
        -0.0511760339140892,
        -0.02372414618730545,
        0.06410732865333557,
        -0.08909042924642563,
        -0.09314817190170288,
        0.047613199800252914,
        -0.036719128489494324,
        -0.04788104444742203,
        0.10091110318899155,
        -0.10122036933898926,
        -0.010899452492594719,
        -0.08407782763242722,
        0.005922083277255297,
        -0.0336327999830246,
        0.05404951423406601,
        -0.07919514924287796,
        -0.0700526013970375,
        0.024382654577493668,
        -0.06966126710176468,
        0.032102394849061966,
        0.07136108726263046,
        0.0642581582069397,
        -0.07503776252269745,
        0.0333222970366478,
        -0.014268679544329643,
        0.0383305624127388,
        0.05049353837966919,
        0.05242794007062912,
        0.1054406613111496,
        -0.03725586086511612,
        -0.0782262310385704,
        0.08237649500370026,
        -0.09513956308364868,
        0.10114791244268417,
        -0.0036467479076236486,
        0.046637389808893204,
        -0.0946153923869133,
        -0.016020789742469788,
        -0.00022849607921671122,
        0.0751885250210762,
        0.027956636622548103,
        -0.03140345215797424,
        0.0029904295224696398,
        -0.06420683115720749,
        0.04759056866168976,
        0.09289003908634186,
        -0.07163874804973602,
        -0.040053412318229675,
        0.00448522437363863,
        -0.057321298867464066,
        0.047284435480833054,
        -0.08574051409959793,
        0.03924841433763504,
        0.07439445704221725,
        -0.09933462738990784,
        -0.10531285405158997,
        0.012282989919185638,
        0.03930753096938133,
        -0.10644654929637909,
        0.06946077942848206,
        -0.0761801078915596,
        0.050155170261859894,
        0.03304608166217804,
        -0.050431303679943085,
        -0.05201459676027298,
        -0.08288639038801193,
        0.02557516284286976,
        -0.04621574655175209,
        -0.08717963844537735,
        0.028581762686371803,
        -0.09226210415363312,
        -0.11660905182361603,
        -0.061237748712301254,
        0.0003232106100767851,
        0.0737311989068985,
        0.02803104743361473,
        -0.10648046433925629,
        0.019319944083690643,
        -0.07999873161315918,
        -0.04746757820248604,
        -0.07309456914663315,
        0.029230013489723206,
        -0.03971162810921669,
        0.016195649281144142,
        0.020579461008310318
      ],
      [
        -0.02600516937673092,
        0.04361185058951378,
        -0.08018184453248978,
        -0.05590332671999931,
        -0.09282813966274261,
        0.018823394551873207,
        0.04287520423531532,
        -0.09094226360321045,
        0.08503261208534241,
        -0.04922006279230118,
        0.10142972320318222,
        0.05571306496858597,
        -0.02183169312775135,
        -0.07991785556077957,
        -0.08450652658939362,
        0.06505655497312546,
        -0.06857524067163467,
        0.08688929677009583,
        -0.05734090507030487,
        0.07580751180648804,
        -0.08719996362924576,
        -0.09567520767450333,
        -0.03263268619775772,
        -0.029002293944358826,
        -0.03950459882616997,
        -0.03232155740261078,
        0.03246811032295227,
        0.006565280258655548,
        -0.011550639756023884,
        0.07688934355974197,
        0.09065499156713486,
        -0.08100339770317078,
        -0.08911827206611633,
        -0.0425434373319149,
        0.06704013049602509,
        0.02674214355647564,
        -0.067958302795887,
        0.06143408641219139,
        -0.0784853994846344,
        0.06854230910539627,
        -0.03290620818734169,
        0.08473066985607147,
        0.10146895051002502,
        0.0376228392124176,
        0.001529396278783679,
        -0.042633503675460815,
        -0.07351186126470566,
        -0.07433042675256729,
        -0.054196350276470184,
        -0.06432530283927917,
        -0.042641159147024155,
        -0.060664545744657516,
        0.01028545293956995,
        0.054811328649520874,
        -0.0892256647348404,
        0.06864266842603683,
        0.00686055701225996,
        -0.08658193051815033,
        0.03714614361524582,
        0.036140501499176025,
        0.0395994670689106,
        0.06410021334886551,
        -0.027631497010588646,
        0.05284908786416054,
        -0.0905739963054657,
        0.038892898708581924,
        -0.013084989972412586,
        -0.0054526301100850105,
        -0.025662684813141823,
        -0.040781471878290176,
        0.058663979172706604,
        0.06114615499973297,
        -0.12055505812168121,
        0.053159646689891815,
        0.05415073409676552,
        -0.027618033811450005,
        -0.06633588671684265,
        -0.05675206705927849,
        -0.09620401263237,
        0.04899218678474426,
        -0.13121074438095093,
        -0.054103732109069824,
        -0.05605198070406914,
        -0.0995752289891243,
        0.033082056790590286,
        -0.087786465883255,
        -0.1170320138335228,
        0.06020372733473778,
        -0.06952495127916336,
        0.029515007510781288
      ],
      [
        0.10266106575727463,
        -0.08603846281766891,
        -0.07993712276220322,
        -0.0910533145070076,
        -0.0041669681668281555,
        0.09235237538814545,
        0.0245860256254673,
        0.1018352285027504,
        0.08524677157402039,
        -0.03203626349568367,
        -0.01607399620115757,
        0.07157980650663376,
        -0.033824119716882706,
        0.0588359571993351,
        -0.09948465973138809,
        0.05533973127603531,
        0.05186343193054199,
        -0.07241922616958618,
        -0.018696632236242294,
        0.02586870640516281,
        0.05904819816350937,
        -0.09535675495862961,
        0.0699424296617508,
        0.05393337085843086,
        -0.018612420186400414,
        0.030509857460856438,
        0.10012458264827728,
        0.02159736678004265,
        -0.013725879602134228,
        -0.04611664265394211,
        0.008306117728352547,
        -0.021347709000110626,
        0.03722372278571129,
        0.04811011627316475,
        -0.01347983069717884,
        0.006861875299364328,
        0.03257916122674942,
        -0.0058474610559642315,
        0.008897866122424603,
        -0.09500349313020706,
        -0.01573164202272892,
        -0.10073700547218323,
        0.060943011194467545,
        0.018237778916954994,
        -0.04066859558224678,
        -0.06687548011541367,
        -0.013552774675190449,
        0.07268144935369492,
        -0.06332097947597504,
        -0.08872856199741364,
        0.0007572883041575551,
        0.05829210579395294,
        0.09707815945148468,
        -0.05604683607816696,
        -0.018375195562839508,
        -0.08281661570072174,
        0.022009754553437233,
        0.04343415051698685,
        0.054916173219680786,
        0.03696570172905922,
        -0.03789583593606949,
        -0.0051591163501143456,
        0.037703949958086014,
        -0.028720306232571602,
        -0.034153442829847336,
        -0.050134047865867615,
        -0.10782627761363983,
        0.00903056375682354,
        0.08272552490234375,
        0.07638007402420044,
        -0.07416553795337677,
        0.020261432975530624,
        -0.0022348081693053246,
        -0.06562881171703339,
        -0.040354639291763306,
        -0.0959906354546547,
        -0.004219562280923128,
        -0.03554508462548256,
        -0.10257954895496368,
        0.053553011268377304,
        0.04151662439107895,
        -0.06631658971309662,
        0.07521267980337143,
        0.09776473790407181,
        0.03082132712006569,
        0.07354168593883514,
        0.0716375783085823,
        -0.07273666560649872,
        -0.051444992423057556,
        0.023671597242355347
      ],
      [
        0.09758931398391724,
        -0.08077730238437653,
        -0.049381934106349945,
        -0.07153939455747604,
        -0.036161746829748154,
        0.044835008680820465,
        0.039982330054044724,
        -0.097577303647995,
        -0.07179556787014008,
        0.05574815347790718,
        -0.08932019025087357,
        -0.0071130553260445595,
        -0.056955575942993164,
        -0.060033515095710754,
        -0.06649626046419144,
        -0.054802458733320236,
        0.0462980642914772,
        -0.045677926391363144,
        -0.05511391535401344,
        0.07732280343770981,
        -0.07724737375974655,
        -0.000625252490863204,
        0.07921715080738068,
        -0.04806198552250862,
        0.0875949114561081,
        -0.026262840256094933,
        -0.04938099533319473,
        0.010306818410754204,
        -0.10536900907754898,
        0.09931743144989014,
        0.042561206966638565,
        -0.026607926934957504,
        -0.10574081540107727,
        0.06914524734020233,
        0.02969701774418354,
        0.042436469346284866,
        -0.003036719048395753,
        -0.08306471258401871,
        -0.10629770904779434,
        -0.02550719864666462,
        0.093439482152462,
        -0.011427545920014381,
        0.02122149057686329,
        0.025094153359532356,
        0.05621305853128433,
        0.059335995465517044,
        -0.004809947218745947,
        -0.011494957841932774,
        0.032230444252491,
        -0.08407757431268692,
        0.037974271923303604,
        0.07235057651996613,
        -0.03245004639029503,
        0.004383306484669447,
        0.008928022347390652,
        0.0268979724496603,
        0.006786975543946028,
        0.031618617475032806,
        -0.01469967421144247,
        0.07042831927537918,
        0.07168472558259964,
        0.10222449898719788,
        -0.06261053681373596,
        0.09173303842544556,
        0.021437527611851692,
        0.1071029081940651,
        0.05717034637928009,
        -0.03872259333729744,
        -0.02282664366066456,
        0.07123877853155136,
        0.11946658045053482,
        0.04132305458188057,
        0.09979946911334991,
        -0.020008370280265808,
        0.0911683663725853,
        -0.04299193248152733,
        -0.03327608108520508,
        -0.012218506075441837,
        0.10892414301633835,
        0.04305263236165047,
        0.17408500611782074,
        0.10722243040800095,
        0.01463249884545803,
        0.056395187973976135,
        -0.013337567448616028,
        0.04824742674827576,
        0.1274990737438202,
        -0.06255511939525604,
        -0.0027982101310044527,
        -0.06457210332155228
      ],
      [
        0.09058272838592529,
        0.03929595276713371,
        0.013860059902071953,
        0.037286195904016495,
        0.07746891677379608,
        0.05137983709573746,
        -0.018346674740314484,
        -0.051855284720659256,
        -0.09031558781862259,
        0.05269835144281387,
        -0.08860567957162857,
        0.07313244789838791,
        -0.08773065358400345,
        -0.02169840782880783,
        -0.0038629728369414806,
        0.07832510024309158,
        -0.06860172748565674,
        -0.02096698433160782,
        0.002487890888005495,
        -0.06564701348543167,
        -0.026551514863967896,
        -0.08745548874139786,
        0.044236958026885986,
        0.0202450230717659,
        -0.07281025499105453,
        -0.028549320995807648,
        0.0077851698733866215,
        -0.025411883369088173,
        -0.09900934994220734,
        0.01762549579143524,
        0.03398680314421654,
        -0.02480602078139782,
        -0.06496591866016388,
        0.02582564949989319,
        0.0579880066215992,
        -0.0474461130797863,
        -0.12143324315547943,
        -0.0036860588006675243,
        0.05068554729223251,
        0.08189990371465683,
        0.0513705350458622,
        0.026200132444500923,
        0.01726420223712921,
        0.044522132724523544,
        0.046218980103731155,
        0.0023835909087210894,
        -0.02552070841193199,
        0.04952538385987282,
        -0.08635283261537552,
        -0.08173402398824692,
        -0.05844241380691528,
        -0.011109532788395882,
        -0.05406126007437706,
        -0.0971372127532959,
        0.0728868618607521,
        0.03377629444003105,
        0.0890972763299942,
        0.043672624975442886,
        0.0325353667140007,
        0.018133314326405525,
        -0.07199128717184067,
        -0.0172547809779644,
        -0.03130390867590904,
        0.0879383310675621,
        -0.030721789225935936,
        0.1209050714969635,
        -0.028733503073453903,
        0.16399450600147247,
        0.10479618608951569,
        -0.0498279370367527,
        0.11521394550800323,
        0.01708681881427765,
        0.1016491949558258,
        -0.016428323462605476,
        0.03590385615825653,
        -0.04093628749251366,
        0.0413629487156868,
        -0.013235502876341343,
        -0.04171650856733322,
        -0.018843837082386017,
        0.05644221603870392,
        0.02249530330300331,
        0.052242863923311234,
        0.03371790796518326,
        -0.0369001179933548,
        -0.057577550411224365,
        0.022498346865177155,
        0.10031186789274216,
        0.046862855553627014,
        0.010840623639523983
      ],
      [
        -0.008692743256688118,
        0.008454583585262299,
        0.0008555645472370088,
        -0.07079008221626282,
        0.07020608335733414,
        -0.020165517926216125,
        0.0434679351747036,
        -0.09580404311418533,
        0.10044048726558685,
        0.08259566128253937,
        0.02624773420393467,
        0.10486529022455215,
        0.06558781117200851,
        0.006588882301002741,
        -0.008515361696481705,
        0.044787149876356125,
        0.035261668264865875,
        0.05567843094468117,
        -0.0513690710067749,
        -0.012661620043218136,
        -0.007386764045804739,
        -0.05846138298511505,
        0.07139205187559128,
        0.09088797122240067,
        -0.0003452757664490491,
        -0.0361185297369957,
        -0.09061934798955917,
        -0.07103683799505234,
        0.0976923480629921,
        0.09706559777259827,
        0.08936650305986404,
        0.09465174376964569,
        -0.010385473258793354,
        -0.016888348385691643,
        -0.02049030177295208,
        -0.10334683954715729,
        0.03210067003965378,
        0.08947443217039108,
        0.03158535063266754,
        0.0873049795627594,
        -0.0922653079032898,
        -0.09219352155923843,
        0.046366699039936066,
        0.008159944787621498,
        -0.02190548926591873,
        -0.08865438401699066,
        -0.07502739876508713,
        0.02431357465684414,
        0.007545930333435535,
        -0.08777772635221481,
        0.08294478058815002,
        0.022013092413544655,
        0.031903695315122604,
        0.047427818179130554,
        0.00865146890282631,
        -0.05739961937069893,
        0.09405121952295303,
        -0.05744060128927231,
        -0.0035472121089696884,
        0.011823824606835842,
        -0.02476327121257782,
        0.031432632356882095,
        -0.0948859304189682,
        -0.009275590069591999,
        0.034669093787670135,
        0.10660307854413986,
        0.08599768579006195,
        0.02951786480844021,
        0.03303181380033493,
        -0.005325975362211466,
        0.0712556540966034,
        0.0116755785420537,
        0.09881221503019333,
        -0.04633674770593643,
        -0.016964636743068695,
        0.06628294289112091,
        0.06822232902050018,
        -0.09896047413349152,
        -0.0007872275891713798,
        -0.06797074526548386,
        0.012570840306580067,
        -0.026866253465414047,
        -0.08219066262245178,
        0.040119469165802,
        -0.07563600689172745,
        0.07559667527675629,
        -0.06426839530467987,
        0.005938696675002575,
        0.02566729672253132,
        0.04163763299584389
      ],
      [
        0.08915504068136215,
        0.0919683501124382,
        0.018842509016394615,
        -0.09682732075452805,
        0.061611708253622055,
        -0.01825144700706005,
        -0.05791427195072174,
        -0.07262216508388519,
        0.05468021333217621,
        -0.07830815017223358,
        0.01634310930967331,
        0.012401127256453037,
        -0.09129326045513153,
        -0.0949690043926239,
        -0.020646583288908005,
        0.01154842134565115,
        -0.00641610799357295,
        -0.048674050718545914,
        0.00744950957596302,
        -0.025461705401539803,
        -0.07313927263021469,
        0.06568650901317596,
        0.04722088575363159,
        -0.0033188010565936565,
        0.08036728203296661,
        0.054693374782800674,
        0.006861344911158085,
        -0.07210949063301086,
        -0.0015770831378176808,
        -0.029518000781536102,
        -0.06967533379793167,
        0.07411203533411026,
        0.06774276494979858,
        -0.06142586097121239,
        0.052255649119615555,
        0.05566519871354103,
        -0.03341647982597351,
        0.024734606966376305,
        0.08997746556997299,
        0.02928677387535572,
        -0.003848903113976121,
        -0.019573867321014404,
        -0.03494169935584068,
        0.07251691073179245,
        -0.08217557519674301,
        0.02686210535466671,
        0.007062973920255899,
        0.029455946758389473,
        -0.10039407759904861,
        -0.03916316479444504,
        -0.004094606265425682,
        -0.02309427037835121,
        -0.09527371823787689,
        -0.006009481381624937,
        0.05041350796818733,
        0.040919575840234756,
        -0.026355557143688202,
        -0.08661691844463348,
        0.06745325773954391,
        -0.03075910173356533,
        0.00563439168035984,
        -0.040713563561439514,
        0.08711590617895126,
        0.12246541678905487,
        0.02736920863389969,
        -0.02742805890738964,
        0.0054832948371768,
        0.1401427537202835,
        -0.03353152424097061,
        0.013264555484056473,
        -0.05197818949818611,
        -0.007390693295747042,
        0.11832864582538605,
        0.11551419645547867,
        0.0652277022600174,
        -0.06009836122393608,
        -0.028435256332159042,
        -0.09184513241052628,
        0.0024027691688388586,
        -0.03801317885518074,
        0.0262659452855587,
        0.037014830857515335,
        0.09752898663282394,
        -0.07854524254798889,
        0.0533374659717083,
        -0.06168224290013313,
        0.016038179397583008,
        0.08417227864265442,
        0.10957495868206024,
        0.10534944385290146
      ]
    ],
    "w2": [
      -0.2128809094429016,
      0.07306209951639175,
      0.012553942389786243,
      -0.06794795393943787,
      0.06682627648115158,
      -0.09866137057542801,
      -0.13910262286663055,
      0.12258068472146988,
      0.1499454528093338,
      0.005863999482244253,
      0.1431972235441208,
      0.18339452147483826,
      -0.1368371844291687,
      0.2114863395690918,
      0.06968255341053009,
      -0.20573489367961884,
      -0.17380237579345703,
      -0.14351658523082733,
      -0.14100368320941925,
      -0.04174703732132912,
      0.3094370365142822,
      0.2669365704059601,
      0.04753024876117706,
      0.22485117614269257
    ]
  }
}
